svm_type epsilon_svr
kernel_type rbf
gamma 0.01
nr_class 2
total_sv 8
rho -1.9972656873598138
SV
91.35513670263367 1:0.0 2:0.6923076923076923 3:0.7692307692307693 4:0.07692307692307693 5:1.6153846153846154 6:1.6923076923076923 7:0.9230769230769231 8:1.0 
91.33010352832545 1:0.6923076923076923 2:0.0 3:0.07692307692307693 4:0.7692307692307693 5:0.9230769230769231 6:1.0 7:1.6153846153846154 8:1.6923076923076923 
-100.0 1:0.7692307692307693 2:0.07692307692307693 3:0.0 4:0.7692307692307693 5:1.0 6:1.0 7:1.6923076923076923 8:1.7692307692307692 
-100.0 1:0.07692307692307693 2:0.7692307692307693 3:0.7692307692307693 4:0.0 5:1.6923076923076923 6:1.7692307692307692 7:1.0 8:1.0 
-47.72926820838624 1:1.6153846153846154 2:0.9230769230769231 3:1.0 4:1.6923076923076923 5:0.0 6:0.07692307692307693 7:2.5384615384615383 8:2.6153846153846154 
56.39254460549201 1:1.6923076923076923 2:1.0 3:1.0 4:1.7692307692307692 5:0.07692307692307693 6:0.0 7:2.6153846153846154 8:2.6923076923076925 
-47.75153624610087 1:0.9230769230769231 2:1.6153846153846154 3:1.6923076923076923 4:1.0 5:2.5384615384615383 6:2.6153846153846154 7:0.0 8:0.07692307692307693 
56.403019618035934 1:1.0 2:1.6923076923076923 3:1.7692307692307692 4:1.0 5:2.6153846153846154 6:2.6923076923076925 7:0.07692307692307693 8:0.0 
