svm_type epsilon_svr
kernel_type rbf
gamma 0.1
nr_class 2
total_sv 9
rho -0.24007092632878146
SV
-0.7532166879496393 1:0.0 2:0.307692 3:0.461538 4:0.076923 5:0.230769 6:0.384615 7:0.461538 8:0.615385 9:0.923077 
0.5795567203087701 1:0.307692 2:0.0 3:0.307692 4:0.307692 5:0.384615 6:0.615385 7:0.615385 8:0.769231 9:1.076923 
1.1435247721341777 1:0.461538 2:0.307692 3:0.0 4:0.538462 5:0.692308 6:0.846154 7:0.923077 8:1.076923 9:1.384615 
-3.785919588704151 1:0.076923 2:0.307692 3:0.538462 4:0.0 5:0.230769 6:0.307692 7:0.384615 8:0.615385 9:0.846154 
5.651672437964718 1:0.230769 2:0.384615 3:0.692308 4:0.230769 5:0.0 6:0.230769 7:0.230769 8:0.384615 9:0.692308 
-3.873806286938229 1:0.384615 2:0.615385 3:0.846154 4:0.307692 5:0.230769 6:0.0 7:0.076923 8:0.307692 9:0.538462 
-0.7036928686512776 1:0.461538 2:0.615385 3:0.923077 4:0.384615 5:0.230769 6:0.076923 7:0.0 8:0.307692 9:0.461538 
0.6167274546936519 1:0.615385 2:0.769231 3:1.076923 4:0.615385 5:0.384615 6:0.307692 7:0.307692 8:0.0 9:0.307692 
1.1251540471419805 1:0.923077 2:1.076923 3:1.384615 4:0.846154 5:0.692308 6:0.538462 7:0.461538 8:0.307692 9:0.0 
